*UNKNOWN* 0.00397306167426 -0.0271395619744 -0.0214105783364 0.0159315729713 0.0494051306536 -0.0199942757673 -0.0225646426246 -0.0165279585723 0.0539019033363 0.0196127632173 0.00924739017075 -0.0453674819588 0.0258084989302 0.0228216426486 -0.0248044038874 -0.0242659275549 0.01441019774 -0.0377823710203 0.0268041904202 0.0750838963336 0.0482757504852 0.0323896065697 -0.0113365345121 0.0130331828059 -0.0587811178388
the 0.496299721813 0.449226330687 0.528752734624 -0.0727331978739 -0.199911128577 -0.361799448282 -0.0369792601035 -0.101511514097 0.238140848464 -0.122969810164 -0.746983267703 -0.0468944805735 -0.355242134073 -0.0812028773248 0.0701143395124 0.428200763546 -0.172986617822 -0.21908732876 0.377482405394 -0.533348485872 -0.0534948773138 0.241207764152 -0.299276832821 -0.139799688904 0.177715565929
, 0.866140382118 0.362239602295 -0.148032292572 -0.472690646531 -0.125446122834 0.00259783204961 0.284563160262 0.0647101838257 -0.48029631444 0.329593717117 -0.0615238258431 0.0828606583647 0.311579870607 -0.270928692949 0.16333058066 0.155717489973 -0.402382068315 -0.157999208896 0.187586051765 -0.115974185171 -0.24996437026 -0.212515855144 0.0997359350771 0.334422478635 -0.494609807272
. 0.320307000774 0.802007341893 -0.130679135679 1.11396141128 -0.298276046523 0.256588839667 0.84158436417 0.680701441511 -0.751188709228 0.71856762553 -0.319511186397 0.107135601802 0.223725872263 -0.256183461112 0.666372917481 1.11548703951 0.246699219001 -0.203591121605 0.0627307738516 -0.338186489177 -0.669427781746 -0.29158396877 0.094074976906 0.433873567181 0.110845124736
to 0.115329195592 0.164310268778 0.390421310205 -0.427417021112 -0.362430422662 0.0261520264441 0.715188045289 -0.412057570005 -0.525616492647 0.0494356394622 -0.182028072266 -0.537919512796 -0.259087841234 0.0421610776257 0.282403126715 0.235510909798 -0.122279732547 -0.0708778202941 0.303752615472 0.0118029605226 -0.374254777842 -0.437632862217 -0.25310068656 0.245826751856 -0.0554704532598
of 0.471278670456 0.585612408204 0.251780560747 0.282593368554 -0.26443281535 -0.368168196275 0.265575406981 -0.209205788243 0.151626195744 0.178008044059 0.203574159528 -0.130326301375 0.278633159421 -0.16396543677 -0.106729256791 0.285160300298 -0.220366857177 0.130952089681 0.0485660515266 -0.304225388385 -0.382038306611 -0.513730960074 -0.420557876293 0.260299092139 0.119351946982
in 0.258289246896 0.582160253503 0.360960028137 -0.130936621154 -0.0692802127196 -0.297811678533 0.23015632949 -0.0224450406982 -0.259136299116 0.0344831142202 0.321484440176 -0.55340703705 -0.0928600207922 0.0326396910022 0.178701120844 0.409584415763 0.0532842601923 -0.00758346939836 0.183428637428 -0.69834553175 -0.719147299025 -0.00073035163264 -0.337310583465 0.441176722577 0.335728022419
a 0.16234663914 0.740386265311 0.58050678089 -0.449444117071 -0.259748403208 -0.447171302212 0.0338012427809 -0.257017398985 -0.0446261360553 -0.344737956085 -0.526387413497 0.102018737716 -0.162774505395 0.287743963186 -0.428854043541 0.424976958983 -0.497199068111 0.222552920321 -0.146145658537 -0.153144477494 -0.327081443683 0.577853100497 -0.0331481322081 0.259456563349 0.534493406925
