*UNKNOWN* -0.125000 -0.353247 0.231444 0.017136 -0.125000 -0.369616 -0.182055 -0.093752 -0.124061 -0.250000 0.227320 -0.125001 -0.233792 0.250000 0.187500 0.374974 0.046878 -0.124830 0.157118 0.125000 -0.187498 -0.222576 0.105496 0.062498 -0.124998
The -0.250000 -0.250000 0.340614 0.062501 -0.003870 0.062500 -0.194902 0.227105 -0.500000 -0.188178 0.031444 -0.366479 -0.038057 0.199440 0.094734 -0.125000 -0.250000 -0.026523 -0.025726 0.081199 -0.062503 -0.187500 0.031508 -0.045231 0.250000
statistical -0.220947 -0.111744 0.107596 0.086288 0.008756 -0.206369 -0.001002 0.390119 0.352320 -0.176290 -0.260756 -0.067231 0.370881 0.120774 0.200688 0.022755 0.130178 -0.317592 0.229391 0.090460 0.099615 -0.088957 0.211809 0.043378 -0.246910
mountainous -0.258752 -0.104928 -0.137044 0.149538 -0.071750 -0.153786 0.099931 0.145499 0.114239 -0.299469 -0.029519 0.114424 0.508204 0.092596 0.220765 0.203372 -0.000054 -0.208952 0.076082 -0.018256 0.031423 -0.116331 0.287167 -0.230664 -0.383832
regions 0.062527 -0.151001 0.126775 -0.209536 -0.221577 -0.177675 0.118304 0.043130 0.395546 0.152555 -0.019132 -0.001625 -0.227699 -0.111315 -0.209023 -0.065245 0.135242 0.141901 -0.157128 -0.337745 -0.133353 -0.396145 -0.152791 -0.145801 -0.357775
account -0.146545 -0.011336 0.098706 -0.400005 -0.193129 -0.037077 -0.082521 0.174144 0.373155 -0.043840 -0.173917 -0.172793 -0.170864 -0.298654 -0.332822 -0.038492 0.191108 0.156530 0.407991 0.020840 -0.112857 0.041510 -0.060017 0.230872 -0.040608
of 0.125366 0.299658 -0.249468 0.125349 -0.238178 0.229166 -0.250319 -0.125000 -0.204463 -0.250458 -0.244684 0.247871 -0.125048 0.125122 0.195614 -0.222247 0.098117 0.181395 -0.125000 -0.125000 0.231787 -0.250458 -0.125000 0.250458 0.125000
Slovenia 0.212265 -0.156896 0.131937 0.029860 -0.409499 -0.200092 0.243683 -0.233397 0.050436 -0.120866 0.434354 -0.178426 0.049886 0.059902 0.185188 0.153239 0.017094 -0.142076 -0.027400 -0.183927 -0.235464 0.028010 -0.163715 0.344934 -0.178531
Guyana 0.187644 -0.225062 0.138914 0.033708 -0.385035 -0.202306 0.217861 -0.200671 0.063480 -0.127114 0.407586 -0.148128 0.070671 0.060019 0.201882 0.158086 0.005010 -0.168157 -0.015725 -0.182956 -0.299763 -0.031308 -0.111271 0.343574 -0.225625
are 0.093755 0.375001 0.031251 0.187500 0.207833 0.374924 0.187350 0.371191 0.006400 0.250000 0.375000 0.250000 -0.203576 0.033613 -0.217225 0.044757 -0.004306 0.240058 -0.165113 0.080009 0.048194 0.023982 -0.021127 -0.031250 0.068899
and 0.250000 0.232714 0.079359 0.250000 0.299512 -0.240704 -0.250000 -0.250000 0.250000 0.124756 0.193268 0.092918 0.260470 0.212505 -0.235381 -0.203466 -0.072297 0.061531 -0.125000 0.217126 -0.160741 -0.109271 -0.211268 -0.141160 0.184186
12 -0.081584 0.059225 0.302085 0.106741 -0.012837 -0.341741 -0.052647 -0.050865 -0.369159 0.094575 0.065373 -0.359133 0.069792 -0.243129 0.188364 0.196113 0.260515 0.164337 0.199950 -0.096166 0.097544 0.068930 0.296848 -0.089611 -0.306531
the 0.127452 -0.211607 -0.157495 0.252121 -0.234272 0.135876 -0.206241 0.236238 -0.115694 0.127561 0.127817 -0.197665 0.068107 -0.208134 0.250678 -0.293045 -0.249244 -0.184636 -0.255039 0.254915 0.091736 0.249107 0.114536 -0.149240 -0.255110
administrative -0.080288 -0.170113 0.080284 0.088647 0.012000 -0.176344 0.052944 0.309900 0.392579 -0.071930 -0.265321 0.094242 0.367476 0.058637 0.274649 0.007429 0.145518 -0.329204 0.263659 0.006401 -0.066198 -0.065004 0.328816 0.115070 -0.196520
national -0.052450 -0.209126 0.082548 0.171658 -0.018286 -0.144990 0.043011 0.314803 0.201957 -0.109857 -0.241216 0.181004 0.431461 0.018020 0.304633 0.075809 0.109283 -0.249495 0.160414 0.000206 -0.177256 -0.062672 0.392141 0.157210 -0.228763
entities 0.074437 -0.158180 0.105059 -0.186731 -0.131155 -0.197428 0.127045 0.026199 0.482328 0.303458 -0.122207 -0.008402 -0.429226 -0.038682 -0.250140 -0.090155 0.129383 0.004964 -0.053011 -0.252313 -0.043579 -0.330328 -0.084181 0.002212 -0.230261
files -0.012812 -0.081470 0.178924 -0.182996 -0.032517 -0.241464 0.099307 0.136505 0.396732 0.216565 -0.171276 -0.063803 -0.430174 0.060966 -0.385119 0.006680 0.104538 -0.015481 0.027638 -0.174399 0.020138 -0.331981 -0.209213 -0.102072 -0.240532
created -0.143857 -0.129967 -0.090685 0.177845 0.196837 0.091755 0.308803 -0.211007 0.009491 -0.026814 0.014774 0.457520 0.082326 0.048934 -0.189052 0.045340 -0.174283 0.195381 0.385031 -0.067731 0.461890 0.087485 -0.075388 -0.164002 0.056867
